net
{
     node_size = (0 0);
     name = "New BN";
     tree = "(C10,C11,C12,C13,C14,C15,C16,C17,C18,C19,C20)";
     UnBBayes_Color_Probabilistic_Description = "-256";
     UnBBayes_Color_Probabilistic_Explanation = "-16711936";
}

node parkinson_disease
{
     label = "C10";
     position = (1257 481);
     states = ("yes" "no");
}

node migraine
{
     label = "C11";
     position = (430 477);
     states = ("yes" "no");
}

node multiple_sclerosis
{
     label = "C12";
     position = (1181 649);
     states = ("yes" "no");
}

node dementia
{
     label = "C13";
     position = (121 478);
     states = ("yes" "no");
}

node meningitis
{
     label = "C14";
     position = (205 640);
     states = ("yes" "no");
}

node alzheimer_disease
{
     label = "C15";
     position = (886 644);
     states = ("yes" "no");
}

node amyotrophic_lateral_sclerosis_als
{
     label = "C16";
     position = (713 474);
     states = ("yes" "no");
}

node tension_headache
{
     label = "C17";
     position = (590 642);
     states = ("yes" "no");
}

node epilepsy
{
     label = "C18";
     position = (978 478);
     states = ("yes" "no");
}

node age
{
     label = "C19";
     position = (430 1070);
     states = ("< 1" "1-4" "5-14" "15-29" "30-44" "45-59" "60-74" "> 75");
}

node gender
{
     label = "C20";
     position = (929 1071);
     states = ("male" "female");
}

potential (parkinson_disease | gender age)
{
 data = ((( 0.0018 0.9982 )
( 0.0018 0.9982 )
( 0.0018 0.9982 )
( 0.0018 0.9982 )
( 0.0019 0.9981 )
( 0.0019 0.9981 )
( 0.0055 0.9945 )
( 0.008 0.992 ))
(( 9.0E-4 0.9991 )
( 9.0E-4 0.9991 )
( 9.0E-4 0.9991 )
( 9.0E-4 0.9991 )
( 0.001 0.999 )
( 0.001 0.999 )
( 0.0045 0.9955 )
( 0.0071 0.9929 )));
}

potential (migraine | gender age)
{
 data = ((( 0.0676 0.9324 )
( 0.0676 0.9324 )
( 0.1557 0.8443 )
( 0.2313 0.7687 )
( 0.3195 0.6805 )
( 0.2187 0.7813 )
( 0.1305 0.8695 )
( 0.0801 0.9199 ))
(( 0.1891 0.8109 )
( 0.1891 0.8109 )
( 0.2658 0.7342 )
( 0.3316 0.6684 )
( 0.4082 0.5918 )
( 0.3206 0.6794 )
( 0.2439 0.7561 )
( 0.2001 0.7999 )));
}

potential (multiple_sclerosis | gender age)
{
 data = ((( 1.0E-4 0.9999 )
( 1.0E-4 0.9999 )
( 1.0E-4 0.9999 )
( 1.0E-4 0.9999 )
( 3.0E-4 0.9997 )
( 4.0E-4 0.9996 )
( 2.0E-4 0.9998 )
( 1.0E-4 0.9999 ))
(( 2.0E-4 0.9998 )
( 2.0E-4 0.9998 )
( 2.0E-4 0.9998 )
( 2.0E-4 0.9998 )
( 4.0E-4 0.9996 )
( 4.0E-4 0.9996 )
( 3.0E-4 0.9997 )
( 2.0E-4 0.9998 )));
}

potential (dementia | gender age)
{
 data = ((( 0.0058 0.9942 )
( 0.0058 0.9942 )
( 0.007 0.993 )
( 0.0064 0.9936 )
( 0.0064 0.9936 )
( 0.0096 0.9904 )
( 0.0185 0.9815 )
( 0.0427 0.9573 ))
(( 0.007 0.993 )
( 0.007 0.993 )
( 0.0083 0.9917 )
( 0.0077 0.9923 )
( 0.0077 0.9923 )
( 0.0109 0.9891 )
( 0.0197 0.9803 )
( 0.0439 0.9561 )));
}

potential (meningitis | gender age)
{
 data = ((( 0.0012 0.9988 )
( 6.0E-4 0.9994 )
( 7.0E-4 0.9993 )
( 6.0E-4 0.9994 )
( 6.0E-4 0.9994 )
( 7.0E-4 0.9993 )
( 4.0E-4 0.9996 )
( 4.0E-4 0.9996 ))
(( 0.0012 0.9988 )
( 6.0E-4 0.9994 )
( 7.0E-4 0.9993 )
( 6.0E-4 0.9994 )
( 6.0E-4 0.9994 )
( 7.0E-4 0.9993 )
( 4.0E-4 0.9996 )
( 4.0E-4 0.9996 )));
}

potential (alzheimer_disease | gender age)
{
 data = ((( 0.0051 0.9949 )
( 0.0051 0.9949 )
( 0.0051 0.9949 )
( 0.0051 0.9949 )
( 0.0051 0.9949 )
( 0.0057 0.9943 )
( 0.0131 0.9869 )
( 0.0097 0.9903 ))
(( 0.0063 0.9937 )
( 0.0063 0.9937 )
( 0.0063 0.9937 )
( 0.0063 0.9937 )
( 0.0063 0.9937 )
( 0.0068 0.9932 )
( 0.0142 0.9858 )
( 0.0109 0.9891 )));
}

potential (amyotrophic_lateral_sclerosis_als | gender age)
{
 data = ((( 0.0 1.0 )
( 0.0 1.0 )
( 0.0 1.0 )
( 0.0 1.0 )
( 1.0E-4 0.9999 )
( 1.0E-4 0.9999 )
( 1.0E-4 0.9999 )
( 1.0E-4 0.9999 ))
(( 0.0 1.0 )
( 0.0 1.0 )
( 0.0 1.0 )
( 0.0 1.0 )
( 0.0 1.0 )
( 1.0E-4 0.9999 )
( 1.0E-4 0.9999 )
( 1.0E-4 0.9999 )));
}

potential (tension_headache | gender age)
{
 data = ((( 0.1718 0.8282 )
( 0.1718 0.8282 )
( 0.3141 0.6859 )
( 0.4766 0.5234 )
( 0.5173 0.4827 )
( 0.375 0.625 )
( 0.2937 0.7063 )
( 0.2531 0.7469 ))
(( 0.2945 0.7055 )
( 0.2945 0.7055 )
( 0.4157 0.5843 )
( 0.5542 0.4458 )
( 0.5888 0.4112 )
( 0.4676 0.5324 )
( 0.3984 0.6016 )
( 0.3637 0.6363 )));
}

potential (epilepsy | gender age)
{
 data = ((( 6.0E-4 0.9994 )
( 8.0E-4 0.9992 )
( 0.0012 0.9988 )
( 0.001 0.999 )
( 9.0E-4 0.9991 )
( 9.0E-4 0.9991 )
( 7.0E-4 0.9993 )
( 6.0E-4 0.9994 ))
(( 5.0E-4 0.9995 )
( 7.0E-4 0.9993 )
( 0.0011 0.9989 )
( 9.0E-4 0.9991 )
( 8.0E-4 0.9992 )
( 8.0E-4 0.9992 )
( 6.0E-4 0.9994 )
( 5.0E-4 0.9995 )));
}

potential (age)
{
 data = ( 0.125 0.125 0.125 0.125 0.125 0.125 0.125 0.125 );
}

potential (gender)
{
 data = ( 0.5 0.5 );
}

